//Numpy array shape [3, 3, 8, 8]
//Min -0.464969396591
//Max 0.488291889429
//Number of zeros 0

#ifndef W13_H_
#define W13_H_

#ifndef __SYNTHESIS__
model_default_t w13[576];
#else
model_default_t w13[576] = {0.077819846570492, -0.232374027371407, -0.227687701582909, -0.096530698239803, -0.079908549785614, 0.009098858572543, -0.079008542001247, 0.012260341085494, -0.077734604477882, -0.041294720023870, -0.129988491535187, -0.152416810393333, 0.100257836282253, -0.119752950966358, -0.151341333985329, -0.167810484766960, -0.143968299031258, -0.171478942036629, 0.021766843274236, -0.107788048684597, 0.028784273192286, -0.043986350297928, -0.066646300256252, -0.156291574239731, 0.009393838234246, -0.176965534687042, -0.097041606903076, -0.281248271465302, -0.158845305442810, -0.091366522014141, 0.064643882215023, -0.027532560750842, -0.112793624401093, -0.069270484149456, -0.242160499095917, -0.245039194822311, -0.004043945576996, -0.105892606079578, -0.121990971267223, -0.065115921199322, 0.007968830876052, -0.138855293393135, -0.238172218203545, 0.010760741308331, -0.106012225151062, -0.210647687315941, 0.011583301238716, -0.190169334411621, -0.084461040794849, -0.196888297796249, -0.305202692747116, -0.240860775113106, -0.173578947782516, 0.022508276626468, 0.119824126362801, -0.099343888461590, -0.195402204990387, -0.137827306985855, -0.160600379109383, -0.219967409968376, 0.067518129944801, 0.017538379877806, 0.020197443664074, -0.202965602278709, -0.060056988149881, -0.018659625202417, -0.224736571311951, -0.084953933954239, 0.075745113193989, 0.092749781906605, 0.049141209572554, -0.064951129257679, 0.085834860801697, -0.089826479554176, 0.010337159037590, 0.024795820936561, -0.073825031518936, 0.042118780314922, -0.021072998642921, -0.039400596171618, 0.062011297792196, -0.078655295073986, 0.037146348506212, 0.006531957071275, -0.050273422151804, -0.008819041773677, -0.018821544945240, -0.044038590043783, 0.064323879778385, -0.038028158247471, -0.004558762535453, 0.040833745151758, -0.054777115583420, 0.014215704984963, -0.007668520323932, -0.010617911815643, 0.042014829814434, 0.012504333630204, 0.046196088194847, 0.050181616097689, -0.054191976785660, -0.002954035298899, -0.046276878565550, -0.059943996369839, 0.061552695930004, -0.001070067519322, 0.079093351960182, -0.008220092393458, -0.089226417243481, 0.072020307183266, -0.086766675114632, -0.026393160223961, 0.048378769308329, -0.022692494094372, 0.031909309327602, 0.015348132699728, -0.139400035142899, 0.012780392542481, -0.039403997361660, -0.085323147475719, 0.007231251802295, 0.054476164281368, -0.015323800034821, 0.026831114664674, -0.005361181218177, 0.022080328315496, -0.053416647017002, 0.043643537908792, -0.015541430562735, -0.001676477026194, 0.007293948438019, 0.015637202188373, -0.015382562763989, 0.048941660672426, -0.072242729365826, 0.019653873518109, 0.015599188394845, -0.004403089173138, 0.049540895968676, -0.029324574396014, -0.026012074202299, 0.064006887376308, -0.074849411845207, 0.008021187968552, 0.070585377514362, -0.008758841082454, -0.078948572278023, -0.042220309376717, 0.073491439223289, -0.045277547091246, 0.045463338494301, 0.013713934458792, 0.005207589827478, 0.075972460210323, -0.099028058350086, -0.127587765455246, -0.082378558814526, -0.126913294196129, -0.078109599649906, 0.067202210426331, 0.015259646810591, 0.022541781887412, -0.002619578503072, -0.090683393180370, 0.011410568840802, -0.076362043619156, -0.079608924686909, -0.048736389726400, 0.021835267543793, -0.019680460914969, -0.112398020923138, -0.112840078771114, 0.015278401784599, -0.012534614652395, 0.038089975714684, 0.004300076048821, 0.001895687310025, -0.072479628026485, -0.095763459801674, -0.171685814857483, 0.012841688469052, -0.085793599486351, -0.043895758688450, 0.022787284106016, -0.077232785522938, 0.006159548647702, -0.039650332182646, -0.116959042847157, -0.015997288748622, -0.126354604959488, 0.074086695909500, -0.012361669912934, -0.045739959925413, 0.056631557643414, -0.128799930214882, -0.122795999050140, 0.067580051720142, 0.026744585484266, -0.000578362087253, -0.033335000276566, -0.102992348372936, 0.045225083827972, -0.157975748181343, -0.076908066868782, 0.039024151861668, 0.026135981082916, -0.020636403933167, 0.006036080885679, 0.036000460386276, 0.006607714109123, -0.112764261662960, -0.097095340490341, -0.097569853067398, -0.092844538390636, 0.030257821083069, -0.097794920206070, 0.089940719306469, 0.051713518798351, -0.027696253731847, -0.001837213872932, 0.084413245320320, -0.003700996283442, 0.010631550103426, 0.109705246984959, 0.068179152905941, 0.092275805771351, -0.023835742846131, -0.018279362469912, 0.020726641640067, -0.015552585013211, 0.073677457869053, 0.111866481602192, 0.013179815374315, -0.050007719546556, 0.004999743308872, -0.082929491996765, 0.125695765018463, -0.032729465514421, 0.029933258891106, 0.007368301972747, 0.045898150652647, -0.030626792460680, -0.028549220412970, 0.012152058072388, 0.091168493032455, -0.017546156421304, 0.147358134388924, 0.086323767900467, 0.034759022295475, 0.095051355659962, 0.044028177857399, -0.089509405195713, 0.046136062592268, -0.044606603682041, 0.100318156182766, 0.078947745263577, 0.004375240299851, 0.067175604403019, -0.100677527487278, -0.075123533606529, 0.038066994398832, -0.032510478049517, 0.116736784577370, -0.027899816632271, 0.006684807594866, -0.026966681703925, 0.009122070856392, -0.020061666145921, 0.038710515946150, 0.007591658737510, 0.041702818125486, 0.037444565445185, -0.078603811562061, -0.058591533452272, 0.011150897480547, -0.088941849768162, -0.053549144417048, -0.004410826601088, 0.071278363466263, 0.083316378295422, -0.006524765398353, -0.065364338457584, 0.007406806573272, -0.024087088182569, 0.008027881383896, 0.005720066837966, 0.101733379065990, 0.003189287846908, 0.041293039917946, -0.089368760585785, 0.153863653540611, -0.018350724130869, -0.070010662078857, 0.289554268121719, 0.063821800053120, 0.078889071941376, 0.004850284662098, 0.024715704843402, 0.109360486268997, -0.171632170677185, 0.002265071496367, 0.195419982075691, -0.014488077722490, 0.054382476955652, -0.107033863663673, 0.049152478575706, 0.010667456313968, -0.031896755099297, -0.118934571743011, 0.242827266454697, -0.002748089609668, -0.039267446845770, 0.167947977781296, -0.055966012179852, 0.145390704274178, 0.076253831386566, -0.206070989370346, 0.322898030281067, -0.210519149899483, 0.024485098198056, -0.039043460041285, 0.108580194413662, 0.062067393213511, -0.003796001430601, -0.045519106090069, 0.131573602557182, -0.161844789981842, -0.144070848822594, 0.045129369944334, 0.093807280063629, 0.138157784938812, 0.077324993908405, -0.054013520479202, 0.124248459935188, 0.035162709653378, -0.100209340453148, -0.020971244201064, 0.106191180646420, 0.063619688153267, -0.017033718526363, -0.064305014908314, 0.120850518345833, -0.032825905829668, -0.009511475451291, -0.040001899003983, 0.184463620185852, 0.019635137170553, -0.089053064584732, 0.126697883009911, 0.158652707934380, 0.060473054647446, 0.006804790347815, -0.103911720216274, 0.022347975522280, 0.154229179024696, -0.043059788644314, -0.028200024738908, 0.020119668915868, 0.043974976986647, -0.010108416900039, 0.020269757136703, 0.038702454417944, 0.014828696846962, 0.005620064213872, 0.015810240060091, 0.005122388247401, -0.000029514329071, 0.033158015459776, 0.001799050718546, 0.047717858105898, -0.027587380260229, -0.089533202350140, 0.012724411673844, 0.026001567021012, 0.000680422934238, 0.074123822152615, 0.014578556641936, 0.103327676653862, -0.005128214135766, -0.075340561568737, -0.033524587750435, -0.017402701079845, -0.023899225518107, 0.012287615798414, 0.027216015383601, 0.056400712579489, 0.012505601160228, -0.000240814755671, -0.041697800159454, 0.029908359050751, -0.011328605003655, 0.049273051321507, -0.077216587960720, 0.118919327855110, -0.039147671312094, -0.027168463915586, -0.014290949329734, 0.047029659152031, -0.023767769336700, 0.092604279518127, -0.001068785088137, 0.115417867898941, 0.019067408517003, -0.061004340648651, 0.030389660969377, -0.000071394206316, -0.013013752177358, 0.054325547069311, -0.034731142222881, 0.027858357876539, 0.001337589230388, -0.010081251151860, 0.027929449453950, 0.072427906095982, -0.117941088974476, -0.010083273053169, -0.017139229923487, 0.022497037425637, -0.019901778548956, -0.013795356266201, 0.014099479652941, 0.051956150680780, -0.042796794325113, 0.033750656992197, -0.025803331285715, 0.038135677576065, -0.024871695786715, -0.010420597158372, 0.036560803651810, -0.000890562485438, -0.028368867933750, 0.066750600934029, 0.018003690987825, 0.013296984136105, 0.164152070879936, -0.071796864271164, 0.002586528891698, 0.224666759371758, -0.171421572566032, 0.180745482444763, 0.002542646368966, 0.122588187456131, 0.268736541271210, 0.044261582195759, 0.005088159348816, 0.206123337149620, -0.025947228074074, 0.112264387309551, -0.007378712296486, 0.100362725555897, 0.103048756718636, 0.007991061545908, 0.008085274137557, 0.203591749072075, -0.099317409098148, 0.146353483200073, -0.102821029722691, 0.153531655669212, 0.118250600993633, -0.009865426458418, -0.119489312171936, 0.120726451277733, -0.088491097092628, 0.094078227877617, -0.052180256694555, 0.125724747776985, 0.243577226996422, -0.080297306180000, -0.061374794691801, 0.242468506097794, -0.126535505056381, 0.110358297824860, -0.074892021715641, 0.112124063074589, 0.229640826582909, -0.045737445354462, -0.048918657004833, 0.134274110198021, -0.028894202783704, 0.042488761246204, -0.175643265247345, -0.070169009268284, 0.014762543141842, -0.081817641854286, 0.015324584208429, 0.015172314830124, 0.040612578392029, 0.086218409240246, -0.135878756642342, 0.154210120439529, 0.101093560457230, -0.022020246833563, -0.149148046970367, 0.103765092790127, 0.009488408453763, -0.010347198694944, -0.124041534960270, 0.053144317120314, 0.064232051372528, -0.098140053451061, -0.000135900118039, 0.154205396771431, -0.013548903167248, 0.095191143453121, -0.103137858211994, -0.035207729786634, -0.095715284347534, 0.023121539503336, 0.032491359859705, -0.050728399306536, 0.098574072122574, 0.018805803731084, -0.092079356312752, -0.005834744777530, -0.011001828126609, -0.008906991221011, 0.091055706143379, -0.067304097115993, 0.043120849877596, -0.022611245512962, -0.004720486700535, 0.064038999378681, -0.033273536711931, -0.006152901332825, 0.018608067184687, -0.110608473420143, 0.062677055597305, 0.035808350890875, -0.089069627225399, 0.000695917522535, -0.051748797297478, -0.006635168567300, 0.067015483975410, -0.036619745194912, -0.002497559646145, 0.001216978766024, -0.060782879590988, 0.004179641604424, -0.009491450153291, -0.000882609107066, 0.030585812404752, -0.064260110259056, -0.023899944499135, 0.012327733449638, -0.064366519451141, 0.063238710165024, -0.028426533564925, -0.111213214695454, -0.011717904359102, 0.021338803693652, 0.064428739249706, -0.012333378195763, -0.067587040364742, 0.010918104089797, -0.043207418173552, 0.020547294989228, 0.078203067183495, -0.134006783366203, 0.094581969082355, 0.002394054783508, -0.070823706686497, 0.001104388618842, -0.002324961824343, 0.000361017591786, 0.098543547093868, -0.066605143249035, 0.033830329775810, 0.018744122236967, -0.029674774035811, 0.075846515595913, 0.000522622431163, -0.023633982986212, 0.101856745779514, -0.040255222469568, 0.015566637739539, -0.009951571933925};
#endif

#endif
