//Numpy array shape [3, 3, 8, 8]
//Min -0.507006824017
//Max 0.497493058443
//Number of zeros 0

#ifndef W18_H_
#define W18_H_

#ifndef __SYNTHESIS__
model_default_t w18[576];
#else
model_default_t w18[576] = {-0.124454066157341, -0.127835378050804, -0.183539941906929, -0.131767168641090, -0.231705769896507, -0.100802406668663, -0.159644305706024, 0.073466837406158, -0.234068199992180, -0.045191790908575, -0.103919729590416, 0.022368123754859, 0.017462417483330, -0.003936349879950, 0.006909090559930, 0.006843939423561, -0.110436893999577, 0.012963635846972, -0.153730347752571, -0.005190533120185, 0.069237232208252, 0.003868376603350, 0.063643686473370, 0.127906769514084, -0.049584511667490, -0.025103071704507, -0.152104675769806, -0.028020329773426, -0.026070563122630, 0.036402639001608, -0.078413307666779, 0.002701628254727, -0.246518060564995, 0.054792672395706, -0.046038206666708, 0.168029561638832, 0.127901002764702, 0.043138295412064, -0.015623133629560, 0.190225511789322, -0.343706309795380, 0.123549774289131, -0.299793064594269, 0.111665323376656, 0.083491437137127, 0.042847957462072, 0.040786609053612, 0.002866146387532, 0.030106902122498, -0.081309877336025, -0.038019258528948, 0.067243851721287, -0.017541036009789, -0.206437766551971, -0.001554712303914, 0.009649004787207, -0.030488254502416, -0.126842305064201, -0.053101442754269, -0.061778925359249, 0.058766886591911, -0.179172649979591, -0.098079107701778, 0.077234707772732, 0.041209157556295, 0.001602778444067, 0.069447062909603, -0.052180156111717, 0.175469100475311, -0.132232710719109, 0.017347697168589, 0.124984703958035, -0.051027342677116, -0.069216169416904, -0.046360805630684, 0.070032216608524, -0.015269152820110, 0.140912130475044, 0.147520050406456, -0.014979192055762, 0.038950432091951, -0.264501869678497, -0.025050299242139, 0.081769891083241, -0.010045808739960, 0.004091168753803, 0.162382051348686, -0.021671488881111, 0.077885977923870, -0.201208427548409, -0.083411343395710, 0.019868856295943, 0.046497095376253, 0.125587433576584, 0.315811514854431, -0.065379530191422, 0.127671077847481, -0.066866405308247, 0.022013327106833, 0.019522754475474, 0.006725442595780, 0.028789060190320, 0.021424423903227, -0.148611754179001, 0.068692684173584, -0.159953773021698, 0.004561894107610, 0.098419852554798, -0.056237328797579, 0.119522176682949, 0.066208526492119, -0.055383346974850, 0.018486393615603, -0.133129864931107, 0.088547095656395, 0.066192328929901, -0.004387754946947, -0.122275881469250, 0.014936537481844, -0.056051611900330, 0.054405160248280, 0.048635900020599, 0.013963582925498, -0.185041233897209, 0.153787642717361, -0.245785892009735, -0.079409822821617, -0.005021973047405, 0.058081317692995, -0.080559670925140, -0.014343687333167, 0.118005178868771, -0.030704122036695, -0.079016819596291, 0.071002826094627, 0.017536994069815, 0.080154366791248, -0.039441742002964, 0.099013805389404, -0.005739117972553, 0.096457049250603, -0.207365736365318, -0.033620461821556, -0.053700368851423, -0.013291820883751, -0.027281934395432, 0.029777014628053, 0.028083842247725, -0.036767665296793, -0.023544879630208, 0.009420305490494, 0.023921275511384, 0.021236563101411, -0.047358255833387, -0.008701548911631, 0.048584107309580, -0.040078230202198, -0.015192755497992, 0.050007794052362, 0.040993280708790, -0.007785608060658, -0.031940914690495, -0.000965583079960, 0.044844105839729, -0.022780409082770, 0.016382686793804, -0.004683914594352, -0.003669254947454, 0.028614345937967, -0.047440834343433, -0.000776029308327, 0.014354666694999, -0.004693169146776, 0.017710737884045, 0.004469395149499, 0.035250369459391, 0.015556361526251, -0.056639764457941, -0.001256682444364, 0.018252691254020, -0.014574946835637, 0.034452833235264, 0.015193222090602, 0.018584392964840, 0.002916028723121, -0.020914541557431, 0.013949189335108, 0.018301019445062, -0.000048544221499, 0.028131021186709, 0.033886872231960, 0.030049622058868, -0.011193498969078, -0.026129791513085, 0.006185867823660, 0.023928165435791, 0.005015756934881, -0.000621501763817, 0.035362306982279, 0.040837328881025, -0.017032343894243, -0.007956402376294, -0.006800506729633, 0.050178200006485, 0.002489569131285, 0.020847832784057, 0.059023957699537, 0.024445768445730, 0.005366629455239, -0.005745889153332, 0.022390563040972, 0.005878680851310, -0.012805630452931, -0.001985692884773, -0.015817405655980, 0.014064671471715, -0.098720334470272, -0.110595554113388, -0.028032245114446, -0.011975462548435, -0.167394697666168, -0.128686100244522, -0.007231584750116, -0.047391429543495, -0.227333813905716, -0.035315841436386, -0.149955332279205, 0.069038167595863, 0.017671544104815, 0.020678984001279, -0.031266946345568, 0.018502766266465, -0.251430302858353, 0.083687067031860, -0.141380086541176, 0.095528699457645, -0.100424975156784, -0.015714425593615, -0.144685536623001, -0.019693028181791, -0.148246556520462, 0.066803760826588, -0.036887943744659, -0.023110773414373, -0.180607065558434, 0.013108565472066, -0.022827738896012, -0.005190014839172, -0.088219650089741, 0.055402576923370, -0.262982368469238, -0.067267172038555, -0.082236520946026, -0.063911706209183, -0.091650471091270, 0.162210837006569, -0.316221952438354, 0.216271340847015, -0.115713953971863, -0.027099773287773, 0.053565818816423, -0.075692944228649, -0.112055361270905, 0.109196439385414, 0.068908162415028, -0.053834561258554, -0.072609998285770, 0.133653074502945, -0.153288140892982, -0.092194788157940, 0.006421222351491, -0.004158685915172, -0.048138998448849, 0.115213878452778, -0.070469081401825, -0.057293381541967, -0.097901985049248, -0.102561414241791, 0.095406524837017, -0.042144939303398, -0.102926708757877, 0.020197782665491, 0.060095891356468, 0.052270237356424, 0.029255781322718, -0.024276085197926, -0.075677499175072, 0.072061792016029, 0.049685146659613, -0.002199601847678, -0.032677549868822, -0.002133560832590, 0.047451779246330, -0.024126125499606, -0.016725756227970, 0.027029898017645, 0.041852552443743, 0.003655356587842, -0.010694405063987, -0.004004905465990, 0.055939357727766, -0.009234095923603, 0.033710543066263, 0.015488396398723, 0.004965197294950, -0.022401561960578, 0.054605372250080, 0.072194322943687, 0.043107613921165, 0.042057663202286, 0.037926070392132, 0.053223658353090, 0.019491136074066, -0.021457104012370, 0.020402869209647, 0.012708959169686, -0.039631921797991, 0.024978058412671, 0.022696465253830, 0.043231885880232, 0.006542623974383, -0.026913506910205, 0.023628234863281, -0.003676198888570, -0.000273646699497, 0.049591500312090, 0.056066397577524, 0.018985616043210, -0.015305040404201, -0.013465306721628, 0.053127437829971, 0.008078304119408, 0.021314222365618, 0.010008634068072, 0.030626371502876, 0.008349063806236, 0.066295005381107, -0.038740359246731, 0.016424754634500, -0.003685648320243, 0.004728973843157, 0.036567877978086, -0.003751213662326, 0.071192331612110, 0.005066880956292, -0.062446475028992, 0.028158005326986, 0.005486000794917, 0.005553250666708, -0.008512467145920, 0.013256547972560, 0.021420540288091, 0.033278532326221, -0.019144423305988, 0.060805272310972, 0.018427083268762, -0.046348974108696, 0.032973930239677, -0.002164694014937, 0.040152702480555, 0.040054734796286, -0.085109487175941, -0.134244590997696, -0.018799340352416, -0.084862388670444, -0.058435309678316, -0.157981678843498, -0.037852715700865, 0.053789962083101, -0.121313832700253, -0.036494698375463, -0.029050372540951, -0.101825937628746, 0.050370156764984, -0.067458294332027, 0.107156358659267, 0.083570592105389, -0.113333940505981, 0.004835744388402, -0.049639340490103, -0.082722149789333, 0.029724504798651, -0.043080039322376, 0.120971962809563, -0.120251134037971, -0.020501857623458, -0.197363808751106, 0.071967922151089, 0.001132675562985, -0.022974865511060, -0.051861912012100, 0.041480310261250, -0.142304837703705, -0.023213885724545, -0.234556004405022, -0.023706013336778, 0.005807853769511, -0.028123462572694, -0.131420612335205, 0.077837750315666, -0.106317862868309, -0.053184509277344, -0.111685849726200, -0.021238926798105, -0.069561503827572, -0.012142779305577, -0.015733601525426, -0.003834933508188, -0.055449843406677, -0.032442171126604, -0.097020238637924, 0.001168121700175, -0.000549843476620, 0.016093555837870, -0.162292093038559, 0.085301615297794, -0.137982308864594, 0.001758919563144, -0.066075019538403, 0.091057658195496, -0.047745961695910, -0.072724595665932, -0.073929309844971, 0.039352893829346, -0.065714985132217, -0.024459553882480, -0.011530525982380, -0.050684981048107, -0.033531561493874, 0.031019747257233, -0.073989748954773, -0.059381540864706, 0.023886946961284, -0.029339484870434, 0.020643046125770, -0.010685420595109, 0.031110446900129, 0.002361564664170, 0.000766129582189, -0.097484096884727, -0.058665115386248, -0.033248450607061, 0.041680123656988, 0.029405571520329, -0.046314354985952, 0.043354354798794, 0.037762049585581, -0.045260839164257, -0.020168058574200, -0.005644210148603, 0.004860921762884, 0.029317568987608, 0.023668793961406, 0.001298604533076, 0.072958081960678, -0.023000435903668, 0.023621458560228, -0.059117011725903, -0.013608975335956, -0.055613394826651, -0.093224979937077, 0.024876108393073, -0.043129537254572, -0.094392389059067, 0.056474469602108, -0.101512432098389, 0.067360907793045, -0.040907002985477, -0.157233238220215, 0.012722968123853, -0.056288987398148, -0.079713210463524, -0.025225471705198, -0.091981962323189, -0.009234560653567, -0.008237781934440, -0.147045016288757, 0.000011875187738, -0.033189468085766, -0.100659303367138, -0.118583679199219, -0.009788685478270, -0.072376139461994, -0.079365126788616, 0.021377190947533, -0.068184308707714, -0.023145636543632, -0.144279539585114, -0.003563950071111, 0.026757050305605, -0.087700806558132, -0.075817562639713, 0.024160316213965, -0.017853062599897, 0.018273392692208, -0.040064129978418, -0.036638274788857, 0.036047630012035, 0.009815620258451, -0.056680351495743, -0.076779581606388, -0.005785692948848, -0.074434220790863, -0.084431320428848, 0.120274685323238, -0.113323934376240, 0.017072666436434, -0.149597764015198, -0.117821395397186, -0.249119654297829, -0.240255221724510, 0.024618163704872, 0.117199189960957, -0.080494225025177, 0.066878654062748, -0.001315042143688, -0.117598332464695, -0.090922534465790, 0.012265293858945, 0.031288307160139, 0.086716204881668, -0.089011177420616, 0.080718040466309, -0.165724039077759, -0.061081513762474, -0.055297773331404, 0.088619567453861, -0.066043823957443, -0.010174896568060, 0.082968354225159, 0.083320476114750, -0.171895101666451, -0.085504122078419, 0.025434009730816, -0.050752967596054, 0.032604251056910, 0.104483559727669, -0.035399559885263, 0.008724427781999, -0.072990618646145, -0.139471232891083, -0.085061453282833, -0.027618749067187, 0.033202148973942, 0.093434430658817, -0.065939292311668, 0.119088821113110, -0.133394613862038, -0.111896857619286, -0.074373133480549, -0.031167861074209, -0.129841655492783, 0.005579438991845, 0.026218442246318, 0.020520104095340, -0.154334709048271, 0.077963873744011, 0.154436543583870, 0.040518674999475, 0.068611472845078, -0.016836877912283, 0.015106074512005, -0.070325881242752, -0.105533443391323, -0.031994778662920, 0.124648913741112, -0.003012581262738, 0.060640044510365, -0.009410649538040, -0.043334532529116, 0.052238970994949, 0.081995837390423, -0.065961591899395, -0.030845941975713, -0.120408698916435, -0.069228000938892};
#endif

#endif
