//Numpy array shape [3, 3, 8, 8]
//Min -0.574586093426
//Max 0.481122642756
//Number of zeros 0

#ifndef W22_H_
#define W22_H_

#ifndef __SYNTHESIS__
model_default_t w22[576];
#else
model_default_t w22[576] = {-0.034485485404730, 0.110791049897671, 0.126070052385330, -0.133855789899826, 0.064152635633945, -0.041936546564102, 0.060011524707079, -0.003449221374467, -0.176357850432396, 0.004338060040027, 0.089571923017502, -0.130930274724960, 0.106096900999546, -0.016689360141754, -0.004617061465979, 0.055975023657084, -0.094210058450699, 0.018432289361954, 0.107666648924351, 0.040147308260202, -0.061576917767525, 0.029855230823159, 0.080865584313869, 0.027863785624504, -0.051817715167999, 0.121939748525620, 0.098280213773251, -0.052231945097446, 0.119355618953705, -0.112401321530342, -0.050886828452349, 0.157823413610458, 0.058691814541817, -0.001126052229665, 0.116694599390030, 0.054100301116705, 0.047378003597260, -0.026788663119078, 0.036033190786839, -0.083121187984943, 0.075570687651634, -0.012372083961964, -0.021559279412031, 0.171331852674484, -0.024507036432624, 0.091906994581223, 0.124060913920403, 0.051361300051212, -0.063755281269550, -0.010016337968409, 0.130171626806259, -0.135926410555840, 0.150477156043053, -0.157494843006134, -0.063126280903816, 0.169121265411377, -0.059096716344357, -0.118386402726173, 0.085878498852253, -0.011145861819386, 0.051044981926680, -0.065541841089725, 0.013415226712823, -0.057229407131672, -0.000478952861158, -0.224510282278061, 0.013317619450390, 0.127923265099525, 0.054869368672371, 0.008444923907518, 0.112733386456966, -0.053987916558981, -0.007544702384621, 0.120879441499710, 0.051553569734097, -0.049853600561619, 0.164174422621727, -0.057866334915161, 0.011934423819184, -0.035794720053673, -0.020590394735336, 0.086595349013805, 0.079262472689152, -0.042515270411968, 0.096525065600872, 0.007583895232528, 0.065779604017735, 0.017601015046239, -0.032457962632179, 0.026186864823103, 0.001113232458010, -0.032100833952427, 0.118077620863914, -0.010784832760692, 0.085512533783913, 0.032715074717999, -0.099710121750832, -0.014092031866312, -0.010847161523998, 0.012655785307288, 0.035156380385160, -0.005872626788914, -0.150608614087105, 0.070279411971569, 0.008753297850490, 0.052832130342722, 0.076115213334560, -0.022666601464152, 0.020330075174570, 0.002629614900798, 0.041964970529079, -0.036003690212965, -0.019450588151813, -0.095683760941029, 0.052043009549379, 0.088192805647850, 0.056711424142122, 0.001666419557296, -0.070004992187023, 0.010632080957294, -0.082949988543987, -0.105555042624474, 0.005221013445407, -0.085153818130493, 0.065870516002178, -0.034671075642109, -0.068975366652012, 0.061855133622885, 0.004891360178590, 0.021030558273196, 0.002525933319703, 0.010959588922560, 0.059774868190289, 0.000210861428059, -0.043064389377832, 0.034909427165985, -0.019596267491579, 0.057262361049652, 0.113791324198246, 0.036494981497526, 0.098307251930237, 0.003089966485277, -0.038260985165834, -0.002697549527511, -0.038193631917238, 0.051505610346794, -0.050647038966417, -0.036552086472511, 0.051520459353924, -0.012856950052083, 0.027175165712833, 0.069977588951588, -0.018206601962447, 0.116918340325356, 0.035807956010103, -0.141502708196640, 0.001735297497362, -0.097358964383602, -0.106075860559940, -0.070869021117687, 0.001378443557769, -0.067059546709061, 0.072247050702572, -0.127702653408051, -0.039271358400583, 0.015269242227077, -0.146386623382568, -0.067174196243286, -0.244060084223747, 0.039122529327869, 0.006644196342677, -0.299532473087311, -0.054344758391380, -0.014024033211172, 0.092014066874981, -0.023371167480946, -0.110765576362610, 0.143679797649384, 0.059257838875055, -0.285738348960876, -0.003938654903322, -0.042073957622051, 0.063224285840988, -0.000396256538806, -0.102098181843758, -0.065042704343796, 0.054821345955133, -0.177948981523514, -0.065902791917324, -0.203947529196739, 0.134330138564110, -0.095886766910553, -0.047838050872087, 0.056923497468233, 0.017199710011482, -0.116361305117607, -0.098338134586811, 0.136668711900711, 0.060310330241919, 0.042361702769995, 0.004462319426239, -0.002884282497689, 0.020615382120013, -0.102401278913021, 0.013083527795970, -0.034063093364239, 0.072407789528370, 0.117692664265633, 0.124248526990414, 0.046069700270891, -0.062210351228714, -0.077465653419495, -0.059840764850378, 0.050827831029892, 0.121344484388828, 0.026624515652657, -0.141442254185677, 0.055422112345695, -0.201981604099274, 0.017114091664553, -0.114387355744839, 0.057708892971277, 0.061881318688393, 0.054736897349358, 0.117877647280693, -0.046113975346088, 0.021008279174566, 0.042723096907139, -0.007501401472837, 0.269279450178146, -0.143151313066483, 0.081297434866428, 0.003180316882208, -0.134030476212502, -0.238738164305687, 0.034927878528833, -0.061218518763781, 0.382202088832855, 0.028049495071173, -0.025426380336285, 0.120300248265266, 0.055704429745674, 0.145644128322601, 0.026015343144536, 0.042323775589466, 0.129325374960899, -0.020723881199956, 0.157538771629333, 0.043151620775461, 0.008489927276969, -0.119567550718784, -0.096151277422905, 0.045018862932920, -0.026595044881105, -0.086353808641434, 0.158161312341690, 0.207592427730560, 0.024195959791541, -0.002123069949448, 0.219241946935654, 0.005826664157212, -0.063418835401535, -0.050447441637516, 0.063855864107609, 0.051694609224796, 0.203700840473175, -0.029406927525997, 0.248647555708885, -0.188409775495529, 0.050411701202393, 0.288482725620270, 0.250317454338074, 0.019150234758854, 0.174053937196732, -0.013728883117437, 0.114122852683067, -0.034037768840790, -0.130014538764954, 0.063460528850555, 0.077423572540283, -0.002617785707116, 0.325117945671082, -0.236636638641357, 0.019293112680316, -0.079618528485298, -0.175916448235512, 0.071506306529045, 0.203329473733902, 0.386626392602921, 0.349148780107498, -0.124547831714153, 0.030881898477674, 0.026906587183475, -0.127432540059090, -0.160734161734581, -0.121311478316784, 0.100517630577087, 0.083233512938023, 0.149621263146400, 0.374756217002869, -0.007213395088911, 0.006187480408698, -0.416037052869797, -0.530193746089935, 0.251743525266647, 0.284326791763306, -0.126275956630707, 0.059467289596796, -0.196543097496033, 0.209998458623886, -0.584172070026398, -0.207163333892822, -0.220707878470421, -0.162138581275940, -0.000537763116881, -0.258587568998337, 0.090608648955822, -0.290645420551300, -0.080424755811691, 0.109357409179211, 0.136665835976601, -0.304683387279510, -0.128610461950302, -0.044102381914854, -0.335600465536118, -0.487358510494232, -0.057656090706587, 0.065144285559654, 0.082368887960911, 0.111315369606018, -0.137082025408745, 0.176143422722816, -0.087393552064896, -0.241694957017899, -0.152002722024918, -0.120436526834965, -0.262442767620087, -0.157602861523628, 0.280333846807480, -0.269957065582275, -0.055353108793497, -0.233440741896629, 0.043366238474846, 0.268367260694504, -0.226852029561996, -0.463045239448547, -0.189653024077415, -0.220173716545105, -0.178547263145447, -0.285245954990387, 0.278719216585159, 0.127397119998932, -0.011850335635245, -0.079404421150684, -0.243830978870392, -0.050385069102049, -0.169547423720360, -0.079796433448792, 0.001514169154689, 0.127045184373856, 0.041585918515921, -0.072235427796841, -0.143385156989098, -0.147770807147026, -0.079141095280647, -0.020901290699840, 0.068320848047733, 0.159134954214096, -0.173467665910721, -0.016726924106479, -0.082327052950859, -0.063735887408257, 0.057763759046793, 0.058990109711885, 0.099661670625210, 0.198342621326447, -0.072714731097221, -0.030441539362073, -0.116978019475937, -0.022642796859145, 0.025885777547956, 0.010377119295299, 0.075890198349953, 0.043380685150623, 0.112125851213932, 0.104619354009628, 0.109401978552341, -0.156314328312874, -0.097093455493450, 0.076599165797234, 0.252440929412842, 0.188773050904274, 0.006774719338864, -0.075262732803822, -0.103912390768528, -0.021590296179056, 0.036023985594511, 0.031742148101330, 0.151303052902222, 0.338066846132278, -0.010974506847560, 0.009945127181709, -0.043276108801365, -0.131218209862709, -0.076840877532959, -0.015168896876276, 0.001160244806670, 0.381033599376678, -0.274799227714539, -0.031469568610191, 0.132829919457436, -0.113237202167511, -0.049722116440535, 0.090488754212856, -0.096261993050575, 0.215290248394012, -0.211044833064079, 0.069445528090000, -0.033270668238401, -0.313849598169327, -0.047609884291887, 0.068069435656071, 0.151573270559311, 0.266730755567551, -0.093718059360981, 0.012988731265068, 0.034293346107006, -0.086576744914055, 0.067646756768227, -0.020303972065449, 0.190188989043236, 0.199862286448479, -0.403971195220947, -0.254591166973114, -0.080523669719696, -0.006379486061633, -0.376549094915390, -0.437908083200455, 0.076570779085159, -0.076829254627228, -0.224602654576302, -0.223652854561806, -0.191455081105232, 0.223695591092110, -0.331164747476578, -0.349796414375305, -0.173433274030685, -0.138105094432831, -0.085598394274712, 0.103683039546013, 0.096433989703655, 0.333120554685593, -0.010335070081055, -0.123412810266018, -0.083629161119461, -0.104055292904377, -0.184552729129791, 0.044269051402807, -0.169012144207954, -0.407900959253311, -0.185884520411491, 0.038261882960796, 0.328881084918976, -0.153433263301849, -0.272474110126495, -0.097155608236790, -0.100856527686119, -0.123787961900234, -0.093408852815628, -0.236511260271072, 0.189770519733429, -0.097789458930492, -0.005034165922552, -0.259844601154327, -0.101992830634117, -0.093485020101070, 0.240586206316948, 0.001571574597619, -0.132614985108376, 0.324734061956406, -0.144684970378876, -0.194855794310570, 0.174701243638992, -0.224075660109520, -0.279635787010193, 0.075503945350647, 0.259901702404022, 0.114156298339367, -0.404999971389771, 0.032682962715626, -0.015350258909166, -0.026602748781443, 0.129009172320366, 0.183154195547104, -0.157991260290146, 0.173651412129402, -0.077282413840294, 0.016779093071818, 0.062421184033155, 0.019299248233438, -0.006727457512170, -0.022853218019009, 0.085247926414013, -0.000646115746349, 0.017186192795634, -0.128230050206184, 0.071413181722164, -0.029421214014292, 0.017846276983619, 0.066209264099598, -0.103561036288738, -0.034218527376652, 0.045736476778984, -0.027721285820007, 0.121511615812778, -0.087929353117943, 0.074046827852726, -0.002777909860015, -0.240444913506508, 0.072413228452206, 0.026882003992796, -0.099515847861767, 0.093890696763992, 0.043544001877308, -0.053298112004995, -0.016684664413333, -0.229077100753784, -0.068653874099255, -0.008170134387910, 0.050177581608295, 0.006469066720456, -0.058994270861149, 0.049703683704138, 0.049777343869209, 0.003316507907584, -0.023210655897856, -0.043911740183830, -0.062902688980103, 0.128389224410057, -0.017282349988818, 0.053467147052288, -0.113113783299923, -0.119151614606380, -0.034591026604176, -0.014699408784509, 0.016930788755417, 0.017064588144422, -0.081604704260826, -0.079564735293388, -0.057818952947855, -0.119139537215233, 0.062490303069353, -0.115274444222450, -0.000591926975176, 0.068118870258331, -0.066169843077660, -0.032966185361147, -0.004397063516080, 0.043264217674732, 0.042690437287092, 0.013165131211281, 0.025154300034046, 0.023761862888932, -0.079142771661282, -0.071114562451839, -0.090644031763077, 0.032611340284348, -0.026874983683228, 0.053053420037031, 0.091467060148716, 0.053491834551096, 0.073965877294540, -0.040559090673923, -0.080511793494225, -0.022823952138424, -0.022441465407610};
#endif

#endif
