//Numpy array shape [3, 3, 8, 8]
//Min -0.697695136070
//Max 0.504072308540
//Number of zeros 0

#ifndef W36_H_
#define W36_H_

#ifndef __SYNTHESIS__
model_default_t w36[576];
#else
model_default_t w36[576] = {-0.081951513886452, -0.063895009458065, -0.023697642609477, 0.067888438701630, -0.131491184234619, -0.031771056354046, -0.168047636747360, 0.089959084987640, -0.196997731924057, -0.135567009449005, -0.059331428259611, -0.071980446577072, -0.067355468869209, -0.174469754099846, -0.030282624065876, 0.069633468985558, -0.137839168310165, 0.011672195047140, -0.150432735681534, -0.064315982162952, -0.074213802814484, -0.168925672769547, -0.157882556319237, -0.108955554664135, -0.058223720639944, -0.024372549727559, -0.087081454694271, 0.186835214495659, 0.076564230024815, 0.014797125943005, 0.065853737294674, -0.062411189079285, -0.217978090047836, -0.029202174395323, 0.021984457969666, -0.068452678620815, -0.025256162509322, 0.006754119414836, 0.055306386202574, -0.074631303548813, 0.015214319340885, -0.259534418582916, -0.085844665765762, 0.201186090707779, 0.017218515276909, -0.008768726140261, -0.259125351905823, -0.285477310419083, 0.099233292043209, -0.004057611804456, -0.001015744870529, -0.122938610613346, 0.076219260692596, 0.060101550072432, -0.124309405684471, 0.109971232712269, -0.091547891497612, -0.043978720903397, 0.037144176661968, -0.099611841142178, -0.217794299125671, 0.015675412490964, -0.157992169260979, -0.048580400645733, 0.157413944602013, -0.066390477120876, -0.176866441965103, 0.232595920562744, -0.016971167176962, -0.263039886951447, -0.524213135242462, -0.190300554037094, 0.015898993238807, -0.145753949880600, 0.020623857155442, -0.061442952603102, 0.002836122643203, -0.078745789825916, 0.035713203251362, 0.001871039159596, 0.028553502634168, -0.069236002862453, -0.027315253391862, -0.032116029411554, -0.092170260846615, 0.002138694282621, -0.009416217915714, -0.137786924839020, 0.018565198406577, 0.025084204971790, -0.025689290836453, -0.007283687125891, 0.009892147034407, 0.045223440974951, 0.021982125937939, -0.004425048828125, -0.032609391957521, -0.224879428744316, -0.030265606939793, -0.027197048068047, -0.189915239810944, 0.063241809606552, -0.097598344087601, -0.112166576087475, -0.058438964188099, -0.163059741258621, -0.005051482003182, 0.020197426900268, -0.065417677164078, 0.025670858100057, -0.078863315284252, -0.062343630939722, 0.099851705133915, 0.038052435964346, -0.100077211856842, 0.020699141547084, -0.074394851922989, 0.022090779617429, -0.011156562715769, -0.026890758424997, -0.071516275405884, -0.020805492997169, -0.039669722318649, -0.005470672156662, 0.028206644579768, -0.017162583768368, -0.020874019712210, -0.081023290753365, -0.049903277307749, -0.065872915089130, -0.022581290453672, -0.005915984511375, 0.014838132075965, -0.032659806311131, -0.015245717018843, -0.052287396043539, -0.012243635952473, 0.016911653801799, -0.025063330307603, 0.011384452693164, -0.064207188785076, -0.106334686279297, -0.090374834835529, -0.029264135286212, -0.007357035297900, -0.102398887276649, -0.139631986618042, 0.061563517898321, 0.075933925807476, 0.156385004520416, -0.204704076051712, 0.055304985493422, -0.033029649406672, -0.091432251036167, -0.096080623567104, 0.175105974078178, 0.004345101770014, -0.061276149004698, -0.253055185079575, -0.067547120153904, -0.168394535779953, -0.007668978068978, 0.155694156885147, 0.077574156224728, -0.046284183859825, -0.012303799390793, -0.090065099298954, 0.049019969999790, -0.116869829595089, -0.246952369809151, -0.020775143057108, 0.108255505561829, -0.190854877233505, -0.119024291634560, -0.005520331673324, -0.117642484605312, -0.074061639606953, 0.086731798946857, 0.010838904418051, 0.031113673001528, 0.040907252579927, -0.147051200270653, -0.099271416664124, -0.126889631152153, -0.101644322276115, -0.145367413759232, -0.106554858386517, 0.063323765993118, -0.057296518236399, -0.155627325177193, 0.095380999147892, -0.041509799659252, 0.053057845681906, 0.058963920921087, 0.045521598309278, 0.044406339526176, 0.030898887664080, 0.035954374819994, -0.066454291343689, -0.047015670686960, -0.104649402201176, 0.114377617835999, -0.076214216649532, 0.046956226229668, 0.036860261112452, -0.123648755252361, -0.064242787659168, 0.004812050145119, 0.095416933298111, 0.037040580064058, -0.038008730858564, 0.152958780527115, -0.166763320565224, -0.154316022992134, -0.197230547666550, -0.111258074641228, 0.217635735869408, -0.015191539190710, 0.041919231414795, 0.149979531764984, -0.000608405156527, 0.086127564311028, 0.053865753114223, 0.005962672643363, -0.010730085894465, -0.002113712718710, -0.103561297059059, 0.075493909418583, -0.034733172506094, 0.065559424459934, -0.040164727717638, -0.211591750383377, 0.111701048910618, 0.042350176721811, 0.004343223292381, 0.059048615396023, 0.045503925532103, 0.089413486421108, -0.112516835331917, -0.046933040022850, 0.002590147545561, 0.086927793920040, 0.105065271258354, 0.077847093343735, -0.029827287420630, -0.145414933562279, -0.092908993363380, -0.051210194826126, -0.200860038399696, -0.067840509116650, -0.032743554562330, 0.019899006932974, -0.183071911334991, -0.117414250969887, 0.081834919750690, -0.107381343841553, -0.157624363899231, -0.032109726220369, 0.214986309409142, 0.036726132035255, 0.093966841697693, 0.193500280380249, 0.071119345724583, 0.011642577126622, 0.003242375794798, 0.094407171010971, -0.136412382125854, -0.223516359925270, -0.006146575789899, -0.133610099554062, 0.152161657810211, 0.104480333626270, 0.209062859416008, -0.063244536519051, 0.119341023266315, -0.040220346301794, -0.149476647377014, 0.117548912763596, 0.212097883224487, 0.003788077039644, 0.005056005902588, 0.170376837253571, -0.007566952612251, -0.055065684020519, -0.067580327391624, 0.172312274575233, 0.266571700572968, 0.200802415609360, 0.045521885156631, 0.170916944742203, -0.199858725070953, 0.142131492495537, 0.139724552631378, -0.006897761486471, -0.134372368454933, 0.266155749559402, -0.016683677211404, -0.097098045051098, 0.286431342363358, 0.116163656115532, 0.083479508757591, 0.029475700110197, -0.159718275070190, 0.093668550252914, 0.085284344851971, 0.005219061858952, -0.181798279285431, -0.081348791718483, 0.230497628450394, 0.260864168405533, 0.016029212623835, 0.051483381539583, 0.048059634864330, 0.135274142026901, 0.090285368263721, 0.254160374403000, 0.006574442144483, -0.021764583885670, 0.044522251933813, -0.111139766871929, 0.098223611712456, -0.034639209508896, 0.108893327414989, 0.111008763313293, 0.145431533455849, 0.002069628797472, 0.037715658545494, 0.022109881043434, -0.149364113807678, 0.141915291547775, -0.039398986846209, 0.187897086143494, 0.059265166521072, 0.218574568629265, 0.170145973563194, 0.165149956941605, 0.007865987718105, -0.012107430025935, 0.112182199954987, 0.206978306174278, 0.063064284622669, 0.234080240130424, 0.258527040481567, -0.005220102611929, 0.148239478468895, -0.039409335702658, 0.152120456099510, 0.033531662076712, 0.141442850232124, 0.263518005609512, 0.337121218442917, 0.322666972875595, -0.088795147836208, -0.097829036414623, 0.144889444112778, 0.048090700060129, -0.201759681105614, -0.018294686451554, 0.180810213088989, 0.177895471453667, -0.072483852505684, 0.016727028414607, 0.185949489474297, 0.087568588554859, 0.043250575661659, 0.047208193689585, 0.141280025243759, 0.217128232121468, 0.083673983812332, 0.140994265675545, -0.146940201520920, 0.080316476523876, 0.015995835885406, -0.072083562612534, -0.130024895071983, 0.182103857398033, -0.141262248158455, 0.007539033424109, -0.033561062067747, 0.126017451286316, -0.053412534296513, -0.085589908063412, -0.268305450677872, -0.218658447265625, 0.009371111169457, -0.238727256655693, -0.140703231096268, 0.079919449985027, -0.047996263951063, 0.110672987997532, -0.146239817142487, -0.067809984087944, 0.089102610945702, 0.037481319159269, -0.104772105813026, -0.125213027000427, -0.019370919093490, 0.082315988838673, -0.067082606256008, 0.003845712170005, -0.153960689902306, 0.068205811083317, 0.104512035846710, -0.066104978322983, 0.007403999567032, -0.075913831591606, -0.132409930229187, -0.063262782990932, -0.130034655332565, -0.099237851798534, -0.031592864543200, -0.043470624834299, 0.056896436959505, -0.122212521731853, 0.150364637374878, -0.118939697742462, -0.034945629537106, 0.099662639200687, -0.095978803932667, -0.022500559687614, -0.068198569118977, -0.093831218779087, -0.173839524388313, 0.067790381610394, -0.000913284136914, -0.039861723780632, -0.271668642759323, 0.105663694441319, -0.144931837916374, -0.213538587093353, -0.202013120055199, -0.229974016547203, 0.019319023936987, 0.059022132307291, 0.099897056818008, 0.062285803258419, 0.044538803398609, 0.047620922327042, 0.004351795185357, 0.180810257792473, -0.035633932799101, 0.126302555203438, 0.049235779792070, 0.050925631076097, 0.093060091137886, 0.034831967204809, -0.009194117039442, 0.111350342631340, -0.007297771051526, 0.077591769397259, -0.096021138131618, 0.327888399362564, -0.006821905262768, 0.000042662257329, -0.077797330915928, 0.127636551856995, -0.005576381459832, -0.097264409065247, 0.003497010329738, -0.053409088402987, 0.109580099582672, -0.120204910635948, -0.074488773941994, -0.005304218735546, -0.020738173276186, -0.003362557385117, 0.016606133431196, 0.010766113176942, -0.071984283626080, -0.008636208251119, -0.004339354112744, -0.105858795344830, -0.018583951517940, 0.060769289731979, 0.154329806566238, -0.008492103777826, 0.145161107182503, -0.052878886461258, 0.079316280782223, -0.073178425431252, -0.091295488178730, -0.140416085720062, -0.026520403102040, -0.227099418640137, 0.016044966876507, 0.087148226797581, -0.028959415853024, -0.130172491073608, -0.198529139161110, -0.165521219372749, -0.160418242216110, 0.037886545062065, -0.053293034434319, -0.124861396849155, -0.129411160945892, -0.180077433586121, 0.095553487539291, -0.004778637550771, -0.128482773900032, 0.078209817409515, -0.040208011865616, -0.329200148582458, -0.453835964202881, -0.125705644488335, -0.019351869821548, 0.079554438591003, -0.246897533535957, 0.079123727977276, 0.046990383416414, 0.000619792088401, 0.033832479268312, -0.183280855417252, -0.010403233580291, -0.180925041437149, -0.104249641299248, 0.014900535345078, -0.133485719561577, 0.138778015971184, -0.069051757454872, 0.111478313803673, 0.054852142930031, -0.006282072048634, 0.002852160716429, 0.020114356651902, -0.380265682935715, -0.033039387315512, 0.099836297333241, 0.009058114141226, -0.069346770644188, -0.106685534119606, 0.168516129255295, 0.308521687984467, -0.102704823017120, 0.025103146210313, 0.081174671649933, 0.124157212674618, 0.223503768444061, -0.157043546438217, -0.200698137283325, -0.018498996272683, 0.163405463099480, 0.074373863637447, 0.114148654043674, -0.017594674602151, -0.212925165891647, 0.186326563358307, 0.152971550822258, -0.005056641530246, 0.021019862964749, 0.047643598169088, 0.155895620584488, 0.001247522886842, 0.037942141294479, -0.077248394489288, 0.130106598138809, 0.161578118801117, 0.216878652572632, -0.034675907343626, 0.035407472401857, -0.056195922195911, 0.124982059001923, 0.063019700348377, -0.018784921616316, 0.174435392022133, 0.045368853956461, -0.076769843697548, -0.031853489577770, 0.149356693029404, 0.289070308208466, -0.135827854275703, -0.256122648715973, -0.082638189196587, -0.320590108633041, -0.021282481029630, 0.070563964545727, -0.157476007938385};
#endif

#endif
