//Numpy array shape [5, 5, 4, 8]
//Min -1.389261722565
//Max 1.581912398338
//Number of zeros 0

#ifndef W4_H_
#define W4_H_

#ifndef __SYNTHESIS__
model_default_t w4[800];
#else
model_default_t w4[800] = {-3.046639442443848, 0.108473427593708, -0.519362568855286, -0.058786701411009, -3.119860410690308, -0.265366107225418, -1.472393870353699, -0.011458139866590, -2.961776971817017, 0.149817213416100, 0.675391495227814, -0.194020822644234, -0.743964076042175, -0.245488390326500, -0.111810937523842, -0.114111125469208, -0.888410329818726, -1.830691218376160, -1.982182621955872, -0.178707197308540, -3.222799777984619, -0.965549707412720, 1.235757112503052, -0.015918415039778, -4.361252784729004, -0.708445191383362, -0.889906167984009, 0.131024792790413, -3.631960391998291, 2.379363536834717, -1.102658987045288, -0.102538853883743, -4.960000038146973, 2.421805381774902, -1.523186802864075, -0.050042822957039, -3.335588455200195, 0.029016559943557, -1.437561511993408, -0.012614959850907, -3.807478666305542, -1.293480396270752, -0.005996911320835, 1.773169755935669, -4.806322574615479, -0.413091868162155, -1.359079480171204, 1.874228119850159, -5.474581718444824, -0.403808146715164, -1.522943735122681, 3.071782827377319, -3.607808351516724, -0.266466766595840, -1.004679560661316, 2.955894708633423, -2.444259405136108, 0.013227063231170, -0.233381256461143, 1.166825771331787, -4.544147968292236, -0.097974702715874, 0.002316949656233, 0.307955205440521, -3.965385913848877, -0.480103254318237, -1.414898037910461, 0.566527783870697, -4.610620498657227, -1.310016274452209, -0.846122086048126, -0.308273136615753, -4.963040351867676, 0.823394834995270, -0.622985422611237, 0.205180197954178, -1.873990535736084, -0.619075357913971, -0.322688370943069, 0.241238415241241, 0.796845614910126, 0.060687910765409, -2.411061048507690, 0.534625291824341, 1.310420155525208, -1.498906016349792, -1.345847964286804, 0.703637540340424, 0.320021897554398, -1.067232608795166, 0.421252548694611, 0.372262120246887, -0.715474545955658, 0.784031033515930, 0.928771138191223, 0.674785077571869, -1.107228755950928, -0.752132117748260, -0.038293033838272, 0.265918463468552, -0.882525086402893, 3.098382472991943, 1.130280613899231, -0.548901915550232, -0.696462213993073, 1.348973274230957, -0.495190411806107, -1.207514643669128, 0.261715620756149, 1.334073662757874, -0.173914909362793, -1.043861031532288, 0.930571317672729, 4.464065074920654, 1.923028111457825, -1.277061939239502, -1.988625407218933, 1.153391838073730, -0.717680215835571, -0.311151444911957, -0.448918074369431, 1.726307511329651, 1.294486522674561, -1.245556950569153, 2.492990255355835, 2.457176446914673, 2.088357210159302, -2.266794443130493, -0.835810661315918, 1.331725239753723, 0.475932687520981, -3.192334413528442, -0.934146583080292, 1.545189738273621, 0.411165624856949, -2.617954254150391, -2.255206584930420, 2.308923721313477, -1.781488060951233, -1.360517978668213, 0.191107973456383, -1.348395228385925, 0.094035752117634, -2.170617818832397, 1.806307315826416, -1.311264038085938, 0.180865332484245, -3.801842927932739, 0.269539147615433, -0.126906350255013, -1.883138656616211, -17.982223510742188, -2.035197019577026, -0.129976272583008, -2.829998731613159, -4.951021671295166, -0.270584523677826, 0.667342543601990, -2.041430711746216, -2.433420419692993, -0.787183344364166, -0.261752158403397, 0.135126486420631, -1.226604819297791, -0.380887240171432, 3.971454381942749, 1.003419876098633, -2.113751649856567, 2.158069849014282, -0.772533118724823, 0.902147173881531, -3.124742269515991, 1.834141254425049, 4.138253211975098, 0.143901720643044, -2.184605836868286, -2.035982847213745, 1.942073464393616, 0.308666646480560, -1.588469505310059, 0.807290732860565, -0.228102177381516, 0.794235348701477, -1.149667143821716, -1.741956472396851, 3.787600517272949, -1.004115104675293, -1.568470001220703, -0.604817271232605, 2.302827835083008, 0.533997237682343, -1.558834552764893, -1.153846144676208, 5.152476310729980, 0.561337530612946, -1.579875826835632, -0.366050422191620, 0.930880427360535, -0.630092144012451, -1.160088896751404, -0.695057451725006, 1.263537406921387, 0.608973443508148, -0.320903629064560, 0.264665722846985, 0.981537699699402, 2.505589962005615, -0.447387814521790, -0.205587774515152, 1.166344285011292, 1.636115193367004, 0.010818049311638, 0.515755176544189, 0.979991912841797, 1.881203293800354, -0.239852637052536, 0.063728272914886, 1.761821150779724, 1.424891591072083, -0.294736146926880, 0.209344908595085, 0.948451101779938, -0.409230142831802, -0.260471522808075, 1.464208722114563, 0.045424107462168, 2.065893650054932, -0.196743413805962, -0.412301868200302, -1.020939350128174, -0.223620489239693, 0.115102216601372, 1.663682818412781, -1.636865258216858, -0.016400180757046, 0.056821737438440, 0.154544696211815, -1.503586411476135, 1.134505867958069, 0.019914247095585, 1.259755730628967, 1.632199168205261, 0.657176256179810, 0.025624886155128, -0.717318236827850, 0.851414740085602, 1.125010967254639, 0.083206109702587, 0.812522292137146, 1.136609435081482, -0.301510125398636, 5.303986549377441, -0.053353104740381, -1.089055061340332, 0.173612922430038, 1.057728171348572, 0.392062842845917, 0.761407196521759, 0.145256996154785, 1.016452431678772, 0.937508285045624, 2.714577436447144, 0.591040849685669, -0.277374744415283, 0.883887648582458, 1.550172805786133, 1.173056602478027, -0.058302782475948, 1.599933147430420, 1.664217710494995, 0.559151172637939, 0.091058865189552, -0.060332134366035, 2.355239152908325, -1.020645260810852, 0.182580053806305, -0.056089602410793, 1.781531810760498, 1.105327248573303, 0.204760089516640, -1.043655157089233, 0.975945413112640, -0.131049722433090, -0.182057976722717, -0.133367776870728, 0.684126436710358, 0.978534400463104, 0.000003821136943, 1.329430937767029, -0.261668652296066, 1.234140515327454, 0.058875277638435, 0.888152956962585, 1.742749929428101, 1.300707459449768, 0.109277062118053, -0.914507508277893, 0.567433893680573, 0.036311175674200, 0.179574325680733, 0.896451711654663, -0.660068511962891, -1.615810275077820, -0.001112346071750, -0.780958890914917, 1.182191848754883, -0.520791649818420, -0.000490164558869, 1.158623814582825, -0.127428174018860, -1.224882125854492, 0.000013084842976, 0.031316936016083, 0.967045426368713, -0.820261776447296, 0.006139513570815, -1.290808796882629, 2.027722835540771, -0.481489539146423, 0.014239584095776, -0.408374875783920, 0.193892434239388, -1.785355687141418, -0.016227575019002, -0.301308125257492, 1.012581229209900, -1.052018046379089, -0.003008279949427, -0.009245479479432, 0.331880062818527, -1.012471914291382, -0.959012746810913, 1.007841825485229, 1.080096125602722, 0.471003323793411, -0.581344306468964, 0.689184963703156, 1.729741573333740, -0.581793963909149, -0.401368051767349, 0.768667280673981, -2.551822185516357, -1.824357509613037, -0.209785252809525, 0.246047303080559, -2.310486078262329, -1.509400725364685, -0.189597442746162, 0.842102408409119, -2.349994659423828, 0.106829985976219, 0.068257465958595, 0.155684873461723, -1.784202456474304, 0.182890236377716, -0.004507573787123, -0.235460966825485, -1.877623796463013, -0.411679059267044, -0.000595860707108, 0.264732271432877, -1.111558556556702, -3.211981534957886, -0.304558336734772, 1.829918265342712, -1.389492750167847, -2.318117856979370, -0.346376121044159, 1.240471720695496, -2.486596345901489, -2.100249528884888, -0.169718354940414, 0.134329438209534, -2.248581886291504, -1.479554533958435, -0.026693543419242, 1.068957209587097, -1.468619346618652, -0.114104822278023, -0.003572986461222, 0.301371783018112, 0.603486597537994, -0.989741384983063, -0.170763820409775, -0.039854280650616, -1.790676712989807, -1.452087521553040, -0.194040209054947, 0.017291309311986, -1.514325141906738, -0.058899585157633, -0.103298701345921, -0.396599084138870, -1.633603692054749, -0.196625620126724, -0.050876788794994, 0.396174728870392, -1.581591248512268, -0.989960849285126, 0.014026951044798, -0.937652230262756, -1.857397675514221, -0.725103199481964, -0.479118913412094, -2.965665578842163, 0.921954333782196, -1.321595311164856, -0.805180370807648, -1.018651008605957, -0.327079176902771, -0.500091910362244, -0.604315340518951, -0.627134740352631, -0.981733500957489, 0.249975651502609, -0.584243535995483, 0.995280146598816, 1.356758952140808, -2.837804079055786, -0.656544327735901, -2.568857431411743, 0.498984038829803, 0.325050920248032, 0.415888965129852, -6.023307800292969, 0.298928022384644, -1.380526900291443, -0.007904981262982, -5.354673862457275, -1.240977644920349, -0.400958180427551, 0.292575716972351, -3.889207363128662, 1.179539442062378, 0.670174896717072, 0.362781554460526, -3.622303724288940, 2.316607713699341, -0.397470235824585, -0.097985073924065, -3.836929082870483, -0.554908633232117, -0.789429008960724, 0.830893099308014, -6.238898277282715, 0.049569875001907, -0.108414806425571, 1.278340578079224, -4.402823448181152, -0.074986621737480, -0.329690247774124, 5.419701576232910, -3.085223674774170, 1.280013918876648, -1.968624114990234, 2.846572875976562, -4.041851997375488, 1.413009524345398, 1.193549394607544, 1.204278945922852, -0.580201268196106, -2.260617256164551, -1.803173422813416, 0.479968756437302, -2.679002046585083, 0.166887938976288, 0.717873692512512, 0.310306549072266, -1.951200127601624, -0.185561567544937, -1.485826969146729, 0.243892952799797, -1.995446681976318, -1.576381206512451, -1.412453413009644, 0.282295286655426, -1.987325906753540, -0.137888416647911, 1.739847302436829, -0.000034734075598, -0.152011021971703, 0.057843729853630, -0.184838220477104, 0.030893467366695, -0.121662087738514, 0.419097691774368, -0.108389526605606, 0.111336983740330, -3.340287446975708, -0.310983449220657, -0.213124856352806, 0.054802209138870, -3.565883636474609, -0.049596227705479, 0.210600987076759, 0.097061373293400, -1.748651623725891, -0.423434227705002, -1.764168143272400, 0.040559016168118, 0.930305659770966, 0.392308324575424, -1.256620287895203, 0.379242569208145, 0.016262160614133, -0.021688224747777, -0.283179670572281, 0.556876838207245, -0.823514044284821, 0.173681065440178, -1.078168749809265, 0.401010423898697, 0.624922990798950, -0.290864497423172, -0.538491845130920, 0.396899729967117, -0.844974517822266, 0.535320997238159, 0.273659855127335, 0.417142838239670, 0.917311251163483, -0.676495850086212, -1.236252546310425, 0.222866207361221, -0.311619699001312, -1.336617350578308, -2.069768190383911, 0.345485359430313, -0.062228944152594, -0.974794924259186, -0.339493840932846, 0.314655661582947, -0.443216413259506, -1.171267747879028, -0.421396017074585, 0.315473079681396, -0.454429119825363, 0.411536037921906, -1.061621427536011, 0.357012003660202, 1.178322315216064, -1.076229214668274, -1.470257520675659, 0.044694840908051, 1.043784260749817, -2.491640806198120, -2.198356151580811, 0.130561873316765, 0.733108222484589, -1.956060767173767, -0.394306063652039, 11.351284980773926, -0.655160188674927, -2.729968070983887, -0.937969863414764, 4.124992847442627, -0.443277299404144, -2.106960296630859, 0.792555510997772, 0.874290525913239, 0.844856500625610, -1.886312246322632, -1.509670495986938, 0.212605729699135, 1.165734052658081, -1.862103819847107, -1.868881821632385, 0.363810181617737, 0.044111754745245, -2.384115219116211, -1.107329845428467, 1.079047441482544, -0.491688877344131, -2.156054496765137, -1.120006084442139, 1.186359763145447, -0.261919885873795, -1.067542672157288, -1.760375976562500, 1.086643695831299, 0.396863460540771, 0.886784970760345, -0.933345794677734, 0.176429018378258, -0.018402710556984, -1.094105362892151, -0.180838987231255, 0.297207653522491, -0.288231670856476, -0.265852808952332, -0.506628096103668, 0.969240784645081, 0.430106073617935, -0.518284678459167, -1.326103925704956, 1.070319771766663, 0.058135442435741, -0.484649211168289, -0.561753451824188, 0.942870736122131, 0.490180999040604, 0.435051590204239, -0.076967120170593, -0.043034035712481, 0.342859297990799, 0.306759119033813, -0.377001732587814, -0.018994271755219, -0.094103828072548, -0.637636661529541, -0.432248234748840, -0.001107660238631, -0.014249789528549, -0.085019119083881, -0.403738528490067, -0.001124858623371, -0.864422798156738, 0.688730537891388, -1.246768951416016, -0.000002939832029, 0.711842477321625, -1.548958063125610, -0.487887322902679, -0.015860943123698, 0.990648865699768, -1.816214919090271, -1.484276413917542, -0.019446646794677, 0.531027615070343, -2.243678569793701, -0.012395459227264, -0.001745051820762, -0.596278607845306, -2.005346059799194, -0.921956777572632, -0.000716543756425, 0.492651879787445, -0.440717726945877, -0.436758458614349, -0.000002118325710, 0.706113159656525, -1.783861398696899, -1.275474309921265, -0.049366470426321, -0.143527165055275, -0.869748055934906, -0.200561180710793, -0.054120454937220, -0.013257985003293, -2.254858970642090, -0.495183289051056, 6.799430847167969, 0.459782093763351, -2.318727254867554, -0.373222798109055, 1.767336010932922, 0.161972731351852, -2.006507396697998, -0.488832801580429, 0.107861362397671, 0.429383665323257, -0.918869078159332, -2.146657943725586, -0.045481301844120, 0.178536459803581, -1.022472977638245, -2.059395313262939, -0.039198886603117, -0.653735876083374, -0.701344072818756, -0.927870512008667, -0.010094053111970, 0.829018354415894, -0.245775371789932, -2.318710803985596, -0.004851996898651, 0.070055209100246, 0.266382664442062, -1.525715470314026, 0.060932099819183, -0.745372533798218, 0.427899032831192, -1.167394280433655, -0.170025780797005, -0.114221423864365, -0.644843995571136, -0.736484944820404, -0.097200617194176, 0.479436904191971, 0.588971257209778, -0.920803606510162, -0.068502128124237, 0.243910223245621, 0.187786743044853, -0.684114098548889, -0.055460795760155, 0.575255870819092, -1.251315355300903, -0.454686641693115, -0.009146347641945, 0.485906243324280, -1.047369241714478, -1.418892621994019, -0.001435104059055, 0.011214107275009, -1.127064704895020, -0.839004635810852, -0.000235525731114, -0.780374825000763, -0.797449648380280, 0.489376664161682, -0.000181315117516, 0.508282244205475, -0.719688415527344, 0.426997810602188, -0.002282044617459, -0.275891274213791, 0.718627393245697, -0.474295586347580, -0.002031513722613, -1.168105483055115, -1.498376488685608, -0.727654874324799, -0.011393151246011, -0.288430511951447, -0.224098846316338, -1.999121546745300, -0.022468786686659, 0.137692525982857, -1.405650734901428, -0.986111938953400, 0.005866506602615, 0.089058712124825, 0.098788715898991, 0.339292734861374, -0.002433169167489, -0.585792124271393, 0.132850363850594, -1.954915404319763, -0.002726246835664, -0.756862878799438, -2.112595319747925, -1.185954451560974, -0.047495737671852, 0.954015314579010, -1.890977978706360, -1.535846829414368, -0.052309282124043, -0.296397447586060, -2.940349340438843, -0.334267348051071, 8.056654930114746, 0.101908765733242, -2.937381744384766, -1.500976681709290, 2.808449029922485, 0.578121244907379, -1.854079365730286, 0.346006721258163, 1.601996421813965, 0.444011151790619, -0.758338868618011, -2.069484949111938, -0.057177558541298, 0.214980751276016, -1.948723316192627, -0.999333977699280, -0.058396972715855, 0.713482439517975, -0.336515337228775, -1.899965524673462, -0.007079476490617, -0.350512892007828, -1.822789788246155, -0.395989030599594, -0.000787881435826, 0.409852981567383, -0.506545901298523, 0.394250214099884, -0.000215155974729, 0.041875336319208, 0.539560914039612, -0.462015300989151, 0.000001077950628, 0.036939818412066, -0.452415108680725, -1.460364580154419, 0.000000628927978, -0.621604442596436, -1.032030940055847, -1.425811290740967, 0.000000849213336, 0.595303952693939, -0.622636079788208, 0.676041781902313, 0.000015537649233, -0.069999195635319, 1.393103003501892, 1.142710089683533, 0.054683368653059};
#endif

#endif
