//Numpy array shape [32, 32]
//Min -0.644549310207
//Max 0.473589807749
//Number of zeros 0

#ifndef W50_H_
#define W50_H_

#ifndef __SYNTHESIS__
model_default_t w50[1024];
#else
model_default_t w50[1024] = {0.027106873691082, 0.218606814742088, -0.053333718329668, -0.336624532938004, 0.007090788800269, 0.392047941684723, -0.534099876880646, 0.103793293237686, 0.247051745653152, -0.465236276388168, -0.021921288222075, 0.277081191539764, -0.369745880365372, 0.253946214914322, -0.128293037414551, 0.178523480892181, 0.076867319643497, -0.467766106128693, -0.034243386238813, 0.007774391211569, -0.026104819029570, 0.052265528589487, -0.557303547859192, -0.090285018086433, -0.340604692697525, 0.241665199398994, 0.118683256208897, -0.487097322940826, 0.176658183336258, -0.338922291994095, -0.347457855939865, -0.096970021724701, 0.175703883171082, 0.420849114656448, 0.176307335495949, -0.506842434406281, -0.038769312202930, 0.027256201952696, 0.028782136738300, 0.157475292682648, 0.108104892075062, -0.115428537130356, -0.568909764289856, 0.168528035283089, -0.024328144267201, 0.333266288042068, -0.019353572279215, 0.252847850322723, -0.431593596935272, -0.245708107948303, 0.399629354476929, -0.146702632308006, -0.170415401458740, -0.332851231098175, -0.271889626979828, 0.114103108644485, -0.294441610574722, -0.144682839512825, 0.357557058334351, -0.320067107677460, 0.158730849623680, -0.279229581356049, -0.377824187278748, -0.327210783958435, -0.068789616227150, 0.142328783869743, -0.238964185118675, -0.430394977331161, 0.274409323930740, 0.189697235822678, -0.186372771859169, 0.062947914004326, 0.194111630320549, -0.084657259285450, -0.483867943286896, 0.061914470046759, 0.030175320804119, 0.162277609109879, -0.444373011589050, 0.143821105360985, -0.356962263584137, 0.026877176016569, 0.293844938278198, 0.018947228789330, -0.277595549821854, -0.217231094837189, -0.323817342519760, 0.037074405699968, -0.194202154874802, 0.119410239160061, 0.346785336732864, -0.140945300459862, -0.180555000901222, -0.217170357704163, 0.109293229877949, -0.410818248987198, 0.164220020174980, 0.227208733558655, 0.031025439500809, -0.780750095844269, 0.351030528545380, 0.088526718318462, -0.763573944568634, 0.020624784752727, 0.021805064752698, -0.289557367563248, -0.035875882953405, 0.775249361991882, -0.228842005133629, 0.114429138600826, 0.032230477780104, 0.377968937158585, -0.672412872314453, -0.017537351697683, -0.115228585898876, -0.423247724771500, -0.289167791604996, -0.183482408523560, -0.070967130362988, -0.190815225243568, -0.117109529674053, 0.377525657415390, -0.135475710034370, -0.157097324728966, -0.032993391156197, -0.164012148976326, -0.266153186559677, -0.498101294040680, -0.338699668645859, -0.096585430204868, 0.017697891220450, -0.237574398517609, -0.506831586360931, -0.465645283460617, 0.142254710197449, 0.094887696206570, -0.353572100400925, 0.046569507569075, 0.195955500006676, 0.442532479763031, 0.011218309402466, -0.006560860667378, -0.000061484359321, -0.016683470457792, 0.379847317934036, -0.240826532244682, 0.083467885851860, 0.128532618284225, 0.349333524703979, -0.018220603466034, -0.401187062263489, -0.152394935488701, -0.584661185741425, -0.268374979496002, -0.085457310080528, 0.452463150024414, -0.618812501430511, -0.029248557984829, 0.038919735699892, -0.463858038187027, -0.207158952951431, 0.136448755860329, -0.401828706264496, -0.464372098445892, -0.375129282474518, 0.082830816507339, 0.095044411718845, 0.371097505092621, -0.534393370151520, -0.146213933825493, 0.150694593787193, -0.365570157766342, -0.000006538441539, -0.240817904472351, -0.245873853564262, 0.282491147518158, 0.375499784946442, 0.340450406074524, -0.436487436294556, 0.206312015652657, 0.139147788286209, -0.069710098206997, -0.506574928760529, 0.212169826030731, -0.557157933712006, -0.412222057580948, 0.097801700234413, 0.154728278517723, -0.578385412693024, 0.272036999464035, 0.000703900877852, -0.103968329727650, -0.616357088088989, -0.013039905577898, -0.375500619411469, -0.259102970361710, -0.214026272296906, 0.443467974662781, 0.168605580925941, -0.253016531467438, -0.886846125125885, -0.603709280490875, -0.000252441153862, 0.080762423574924, 0.438361465930939, 0.211471155285835, -0.323552876710892, -0.037078488618135, 0.200861871242523, 0.408265203237534, 0.031923152506351, 0.055458471179008, 0.051344484090805, -0.043472994118929, -0.016383225098252, 0.144651770591736, -0.406490713357925, -0.265809059143066, 0.263828009366989, 0.172267615795135, -0.172648936510086, -0.117151036858559, 0.551742792129517, -0.416828632354736, -0.330359131097794, -0.100741632282734, 0.000062140403315, -0.294456958770752, -0.140850767493248, -0.097446084022522, 0.009576996788383, 0.113235726952553, -0.592320144176483, -0.258322358131409, 0.165589496493340, 0.305390447378159, 0.322074830532074, -0.315998286008835, -0.368442147970200, 0.274305284023285, 0.203008875250816, 0.000236039209994, -0.331087619066238, 0.228879779577255, -0.203522026538849, -0.313906937837601, -0.317058622837067, 0.114992402493954, -0.448111355304718, -0.044178858399391, -0.002763272263110, 0.271298170089722, -0.522252380847931, 0.000104580460174, 0.490343749523163, -0.182735949754715, -0.283794552087784, -0.571507871150970, 0.037441093474627, -0.454705566167831, -1.091205000877380, 0.085459060966969, 0.100758098065853, 0.263111293315887, -0.160557329654694, 0.132728144526482, 0.006662900559604, -0.321615934371948, -0.121507875621319, 0.000068266817834, -0.223040476441383, -0.076689414680004, 0.211001783609390, -0.056210316717625, -0.046492338180542, -0.095411159098148, -0.352601349353790, -0.000882002874278, -0.038168363273144, -0.251751959323883, -0.868011176586151, 0.255741715431213, -0.328368395566940, 0.348516106605530, -0.297720700502396, 0.606134593486786, -0.083968169987202, 0.217341870069504, 0.250456660985947, -0.186312794685364, 0.118711814284325, -0.480952441692352, 0.062928564846516, 0.428210079669952, -0.269345164299011, -0.079720243811607, 0.047370761632919, -0.011478913016617, 0.031679280102253, 0.203856781125069, 0.010165954008698, -0.095026791095734, -0.261348247528076, 0.277581244707108, -0.349232703447342, -0.334506213665009, 0.101487442851067, -0.201871871948242, -0.247924908995628, -0.432427465915680, -0.765966415405273, -0.442998081445694, -0.246866941452026, 0.322673231363297, 0.054872959852219, 0.008673635311425, 0.281932502985001, -0.027525492012501, -0.185053020715714, 0.181142970919609, 0.414889097213745, 0.539647340774536, -0.035929381847382, 0.077748090028763, -0.086617432534695, 0.324490368366241, -0.262765884399414, -0.523468494415283, 0.007000351790339, -0.683459460735321, -0.854163467884064, 0.375084429979324, -0.546251893043518, 0.033171318471432, -0.550944209098816, -0.175893381237984, 0.003124540904537, 0.076541014015675, 0.402860224246979, 0.195149630308151, -0.210887342691422, -0.202948555350304, -0.164237603545189, -0.245340064167976, -0.440822720527649, 0.262989550828934, -0.226804167032242, -0.222893521189690, -0.003831519512460, 0.175914242863655, -0.445110380649567, 0.035240255296230, 0.700779020786285, 0.687989890575409, -0.147859215736389, -0.450556188821793, 0.125799879431725, 0.619199931621552, -0.593693315982819, 0.052064690738916, 0.113485559821129, -0.515939831733704, -0.770954132080078, 0.051749307662249, -0.003202138468623, 0.104448266327381, -0.638724505901337, -0.029820077121258, -0.669693410396576, -0.097648158669472, 0.254392713308334, -0.118261434137821, -0.091191962361336, 0.086911305785179, -0.263742774724960, 0.030555512756109, -0.083288565278053, 0.344469428062439, -0.228576287627220, -0.035837028175592, -0.235230237245560, -0.580569744110107, -0.250129401683807, 0.044371932744980, -0.400227844715118, -0.360232472419739, -0.309102833271027, -0.228658497333527, -0.407387286424637, -0.088273152709007, 0.175901100039482, 0.114996306598186, -0.428245782852173, -0.254074871540070, 0.698615252971649, -0.055034276098013, -0.123277738690376, -0.334085583686829, -0.270442664623260, 0.317989230155945, 0.518239796161652, -0.118520848453045, -0.232339903712273, 0.208581700921059, -0.072584211826324, 0.174590364098549, -0.276792734861374, -0.018902542069554, -0.469132870435715, -0.030635576695204, 0.205002456903458, 0.043189998716116, -0.202982947230339, -0.009864154271781, 0.179529786109924, -0.401816815137863, 0.686992943286896, 0.512082815170288, 0.079942122101784, 0.312161743640900, 0.063212148845196, 0.369254767894745, -0.207555100321770, -0.374070376157761, 0.546306014060974, -0.232369661331177, 0.110986873507500, -0.056790743023157, -1.074935674667358, 0.177452027797699, 0.303617179393768, -0.120519690215588, -0.214037269353867, 0.088130161166191, 0.232845529913902, -0.566555738449097, 0.085209891200066, -0.119572214782238, 0.389029711484909, 0.183751642704010, 0.745477557182312, -0.036838777363300, -0.335513710975647, -0.458712637424469, 0.505854606628418, 0.058610118925571, 0.069801561534405, -0.061730157583952, -0.727007448673248, -0.260359078645706, -0.585159242153168, -0.308703720569611, -0.399543702602386, -0.469748377799988, 0.608161389827728, 0.207309752702713, -0.491239160299301, -0.080608613789082, 0.483936816453934, 0.071009263396263, 0.591627955436707, -0.403670638799667, 0.013403214514256, -0.045184556394815, -0.101909913122654, 0.550448954105377, 0.627305388450623, -0.293522834777832, -0.105400510132313, 0.240382581949234, -0.390901535749435, 0.009281273931265, -0.927359521389008, -0.397234469652176, 0.405872553586960, 0.525564789772034, -0.321600556373596, -0.152839571237564, 0.360122054815292, 0.001805766485631, 0.194172278046608, 0.296366333961487, -0.324748337268829, 0.568392515182495, 0.351360172033310, 0.031832247972488, -0.094718739390373, 0.067620493471622, 0.352751731872559, 0.737348914146423, -0.110703669488430, 0.616513073444366, -1.249513864517212, -0.344817847013474, 0.362005591392517, -0.371151357889175, -0.343975901603699, 0.309993267059326, -0.015739351511002, -0.188809484243393, 0.046367552131414, -0.278503626585007, 0.036538016051054, -0.366406649351120, 0.250403076410294, 0.413487792015076, -0.597589015960693, -0.020213911309838, 0.757618606090546, 0.476205766201019, -0.204801350831985, 0.225608140230179, -0.612663626670837, -0.288071870803833, -0.064496956765652, -0.199723973870277, -0.446919441223145, 0.111132360994816, 0.142544940114021, -0.331605702638626, -0.226932793855667, -0.573489069938660, -0.122413337230682, -0.007447803858668, -0.199696823954582, -0.520063936710358, 0.000790758640505, 0.412093579769135, 0.709686160087585, -0.416357100009918, -0.038532990962267, 0.244664505124092, -0.070372886955738, 0.305210471153259, -0.066654130816460, -0.079378873109818, -0.792877733707428, -0.087715767323971, 0.253947317600250, 0.581470966339111, -0.348064005374908, 0.044212635606527, 0.585968136787415, -0.057780485600233, 0.401138782501221, 0.972059965133667, -0.027649264782667, 0.245360076427460, 0.098500169813633, -0.457453042268753, -1.138327956199646, -0.675424873828888, 0.708566427230835, -0.652087092399597, -0.226251438260078, 0.503275930881500, -1.737781763076782, 0.068536981940269, 0.667982816696167, -0.189491406083107, -0.863534569740295, 0.163158774375916, 1.135587334632874, -2.135578870773315, -1.253040075302124, -0.042528577148914, 0.253574788570404, -0.920007109642029, 0.591398835182190, -0.128661051392555, -0.204154387116432, -0.715417087078094, 0.508169591426849, 0.458769381046295, -0.995935261249542, -0.478094518184662, -0.402640163898468, -0.143715113401413, -0.386978149414062, -0.222607195377350, -0.539740562438965, 0.189992293715477, 0.024052152410150, -0.121805414557457, -0.028666168451309, -0.268702059984207, 0.347971141338348, -0.024403844028711, -0.090154588222504, -0.212297961115837, -0.289088964462280, 0.042383380234241, 0.513135194778442, 0.000124272279209, -0.255487889051437, 0.309028893709183, 0.035130642354488, 0.151002958416939, -0.029628099873662, -0.174191161990166, -0.777583777904510, 0.158363282680511, 0.163992896676064, 0.004893456585705, -0.520329654216766, 0.000115235707199, 0.270119696855545, -0.299187809228897, -0.095230288803577, -0.040221400558949, -0.220174774527550, -0.360378324985504, -0.541774034500122, 0.219738379120827, 0.600731492042542, 0.288447111845016, -0.567045271396637, -0.301360756158829, 0.120550483465195, -0.503324031829834, 0.415845066308975, 0.217072278261185, -0.228103592991829, 0.308881908655167, 0.196637287735939, -0.166487053036690, -0.210000574588776, -0.061845395714045, -0.331171244382858, -0.423531949520111, -0.088766261935234, 0.354980617761612, -0.197362929582596, -0.258003890514374, 0.400211125612259, 0.111857056617737, -0.326795518398285, 0.020413277670741, -0.071063786745071, -0.179503902792931, 0.300837934017181, 0.224877402186394, 0.427877485752106, -0.042194932699203, 0.203164264559746, -0.062281150370836, -0.213900849223137, 0.261177510023117, -0.167036801576614, -0.424630045890808, -0.734178185462952, 0.240796118974686, -0.173821777105331, 0.383925884962082, -0.092682473361492, 0.073307760059834, 0.008213909342885, -0.491627931594849, 0.471561878919601, -0.123886227607727, -0.024345256388187, -0.636051893234253, -0.679968357086182, -0.575984895229340, -0.119582705199718, 0.490535467863083, -0.128638684749603, -0.205393508076668, 0.269504994153976, -0.431332409381866, -0.492639392614365, -0.507598280906677, -0.090522997081280, 0.553665757179260, 0.502539992332458, 0.399906247854233, 0.208772614598274, 0.059775341302156, -0.580047786235809, 0.170874461531639, 0.344687938690186, 0.503034770488739, -0.085151329636574, 0.275200277566910, -0.657020151615143, 0.441548258066177, 0.313218802213669, -0.513055443763733, -0.269435763359070, 0.040482215583324, 0.175305932760239, -0.578486084938049, -0.101396843791008, -0.036427427083254, 0.061556156724691, -0.311128646135330, 0.234474465250969, 0.350274473428726, -0.619916319847107, -0.398208409547806, 0.258987903594971, -0.662483811378479, 0.048333935439587, 0.385077029466629, 0.007596263196319, 0.160031393170357, -0.356170773506165, 0.161234915256500, 0.578658521175385, 0.239280417561531, 0.489548295736313, -0.104336991906166, 0.049445405602455, 0.526584923267365, -0.275807738304138, 0.000085160849267, -0.501864016056061, -0.233139425516129, 0.450006604194641, -0.589750349521637, -0.021980427205563, 0.449600964784622, 0.224331453442574, -0.652695596218109, -0.003692755009979, 0.175999790430069, 0.060927640646696, 0.129435539245605, 0.400845944881439, 0.339215934276581, -0.053289081901312, -0.015479837544262, 0.323508024215698, 0.112525217235088, -0.086028069257736, -0.127055600285530, 0.606082618236542, 0.146900355815887, -0.185648024082184, -0.591164052486420, 0.172495439648628, 0.017369942739606, 0.188618168234825, -0.065816864371300, 0.177613288164139, -0.167487770318985, -0.057079851627350, 0.635277986526489, 0.255815893411636, 0.373124182224274, -0.313199788331985, 0.116283409297466, 0.045543171465397, -0.760080218315125, 0.355769693851471, -0.099616773426533, -0.009322650730610, -0.762240529060364, 0.182982712984085, 0.226618304848671, 0.020960165187716, 0.648314237594604, -0.342340588569641, -0.329453408718109, -0.569238424301147, -0.266702890396118, -0.640742182731628, -0.583445310592651, 0.104117080569267, 0.877203404903412, 0.559951424598694, -0.766468644142151, -0.075197152793407, 0.982816815376282, 0.170764356851578, -0.365065097808838, 0.280679047107697, -0.495476990938187, -0.224091365933418, 0.564937353134155, 0.141022324562073, 0.370022356510162, -0.285943418741226, -0.349247395992279, -0.544973909854889, -0.008239076472819, 0.634311258792877, -0.070933945477009, -0.352705359458923, -0.441448450088501, 0.307845175266266, -0.651768326759338, -0.470628976821899, 0.385934442281723, -0.351811408996582, -0.023217298090458, 0.085044421255589, -0.734985649585724, -0.286416083574295, -0.194706097245216, -0.249962508678436, -0.128840088844299, -0.084230758249760, -0.351608425378799, -0.599060475826263, -0.039861198514700, 0.273490488529205, 0.163096055388451, -0.211775928735733, -0.006123262923211, 0.069829039275646, -0.213166058063507, -0.101577587425709, -0.249551400542259, -0.277822285890579, 0.152777850627899, 0.389347463846207, -0.064494855701923, 0.097122743725777, 0.165684014558792, 0.010809406638145, 0.120331235229969, -0.318367600440979, -0.121920071542263, -0.554970026016235, -0.218711331486702, -0.012253290973604, 0.298168152570724, -0.426243931055069, 0.277507007122040, 0.215132698416710, -0.264515966176987, -0.509879708290100, -0.201835379004478, -0.026516014710069, -0.173925355076790, -0.934891164302826, 0.039676766842604, -0.000371369358618, 0.017578570172191, -0.115097977221012, -0.296451479196548, 0.668145895004272, 0.029167992994189, -0.136301800608635, -0.178201258182526, -0.356807142496109, 0.098875388503075, 0.190786615014076, -0.245326057076454, 0.213565513491631, 0.128495126962662, 0.154098629951477, 0.163236990571022, -0.350340783596039, -0.213943541049957, -0.457544714212418, -0.200341835618019, -0.434226572513580, 0.312505304813385, -0.343938618898392, 0.527797400951385, 0.007409340701997, -0.262927919626236, 0.471068620681763, 0.005958188325167, -0.041976545006037, -0.495332360267639, 0.134852319955826, 0.093643806874752, -0.538067281246185, -0.015410897321999, -0.102550990879536, 0.022900458425283, -0.094083689153194, 0.490797817707062, -0.081025727093220, -0.229536101222038, -0.163187086582184, 0.225030556321144, -0.119178086519241, -0.103786535561085, 0.339897125959396, -0.092370703816414, -0.088971547782421, 0.017374863848090, -0.267614305019379, -0.347858339548111, 0.061953589320183, 0.154693067073822, -0.010523256845772, 0.040227074176073, 0.252271175384521, -0.599770426750183, -0.072235547006130, -0.562887251377106, -0.424357920885086, -0.358210533857346, -0.358510106801987, -0.046281397342682, -0.701883256435394, -0.100171536207199, 0.395122528076172, 0.112593986093998, -0.465668886899948, -0.301668107509613, 0.120427265763283, -0.116654649376869, 0.190988168120384, -0.135763049125671, -0.339384168386459, 0.090490549802780, 0.710982024669647, -0.153065532445908, 0.073744565248489, 0.102152377367020, 0.000749797152821, -0.207452788949013, -0.324643552303314, -0.148752167820930, -0.533760368824005, -0.099618554115295, 0.126354649662971, 0.359242558479309, -0.106824733316898, -0.010553251020610, 0.267120480537415, -0.382910251617432, -0.723903238773346, -0.550032854080200, -0.441379874944687, -0.690502405166626, -0.021885087713599, 0.305470228195190, 0.118094801902771, 0.084458060562611, -0.792185723781586, -0.340811133384705, 0.151715442538261, -0.455973416566849, 0.187982767820358, -0.016159972175956, 0.087587147951126, 0.605800867080688, 0.624265372753143, -0.554812490940094, -0.013995791785419, -0.255629539489746, 0.337131470441818, 0.004406661260873, -0.371767103672028, 0.100267611443996, -0.224617138504982, 0.105141937732697, -0.286533117294312, 0.203438267111778, -0.052925884723663, 0.357856363058090, 0.012425106018782, -0.484683305025101, -0.085478171706200, -0.356377989053726, -0.312387287616730, -0.398691713809967, -0.644801676273346, -0.037369668483734, 0.337514370679855, -0.123053610324860, -0.003754985518754, 0.005732362624258, 0.389583975076675, -0.061668571084738, -0.178591072559357, 0.084287360310555, -0.277235209941864, 0.117294624447823, 0.252390921115875, -0.009065967984498, -0.207715988159180, 0.355963557958603, -0.050887860357761, 0.104514837265015, -0.010815255343914, -0.255310535430908, -0.360417366027832, -0.000029804816222, 0.442699909210205, -0.051496665924788, -0.109552823007107, 0.064183965325356, -0.011634693481028, -0.573649048805237, -0.288676828145981, -0.406279265880585, -0.547838509082794, -0.328897565603256, -0.274936765432358, 0.117787458002567, 0.027139468118548, -0.010857530869544, -0.456707417964935, -0.449900418519974, 0.550253927707672, 0.011242331936955, 0.203744471073151, -0.216507911682129, -0.249546825885773, 0.491937100887299, 0.527173876762390, -0.136701613664627, -0.340114116668701, 0.072284065186977, 0.022338040173054, -0.080548472702503, -0.015938948839903, 0.020434932783246, -0.381648361682892, -0.136539444327354, -0.026098111644387, 0.095996931195259, -0.043439533561468, 0.033577319234610, 0.088889643549919, -0.388094037771225};
#endif

#endif
